#pragma once

const short conv1_w[864] = {
854, -867, 1960, -1424, 152, 1776, 1174, 1234, -997, 50, -1004, 660, -2417, 1487, -1333, -231, 
504, -1065, -96, -1101, 715, 1569, -2481, 859, 1679, 569, -1540, -1223, 1115, -1190, -70, -821, 
897, -690, -907, -1387, 1695, -286, 873, 1830, -2025, 2112, 2298, -134, 1067, 1452, -2711, -1528, 
1142, -700, 1021, -272, -944, -874, -205, -2036, 1022, -2214, 1912, 1546, 618, -2036, 1246, 1461, 
583, 1101, 2146, 1164, -2158, 1731, 1960, -1528, -1510, -1871, 717, -881, -1300, 1990, -1225, -941, 
-782, -142, 944, -200, -483, -973, -706, 1492, 382, 923, -169, 868, 939, 901, 1791, -276, 
-594, 2098, 1567, -831, -1146, -1156, 627, -739, 470, -1395, -219, -1545, 0, 0, 0, 0, 
0, 0, 0, 0, 0, 0, 0, 0, 0, 0, 0, 0, 0, 0, 0, 0, 
0, 0, 0, 0, 0, 0, 0, -1858, -750, -2170, -759, -385, -1020, -1955, -1346, -2029, 
344, -42, -522, -224, 289, 321, 264, 339, 44, 124, 259, 1045, 831, 99, -398, -60, 
290, 388, 1225, -790, -275, 815, 16, 35, 710, 1634, 948, -675, 695, -653, -676, -892, 
-1565, 662, 827, -821, -1326, 771, 994, -859, -1006, 1075, 259, 172, 1519, -368, 820, -1156, 
2499, 2317, 422, -144, 1501, 1590, 1958, 702, -616, -372, 1202, -1187, -783, 1759, 1250, -2293, 
-1551, 1026, 360, -1267, 145, -761, 546, -274, 6, -2360, -1403, 912, 623, -441, -573, 1002, 
489, -225, 993, 2197, -531, 516, -331, 243, -474, -1627, 426, 1808, -329, 2257, -1745, 2629, 
2329, -1434, 2374, -992, -1054, 1618, -683, 304, -1024, -514, -96, 265, -1596, 1316, -2157, 1535, 
-1039, 512, 561, -413, 2196, -1003, -1400, -70, -444, 2438, 2504, -621, 191, 2521, 137, -241, 
-1862, 2047, 492, 2028, 919, -1210, 744, -1647, 760, -275, -1649, 902, -879, -1150, 1820, -1641, 
-293, 1105, 469, -77, -1222, 949, -730, -354, 1144, 1397, -212, 1735, -235, 655, 813, 11, 
-1373, -675, 916, -1947, 1013, 795, -1521, -2271, 671, -1210, 241, 1869, 1339, 146, 1465, 1097, 
2210, 1042, 306, 1305, 1236, 607, -1908, 647, 1315, 334, 549, 53, -930, 303, -768, 11, 
49, -2010, 1129, -1622, 502, 1474, 1206, 1369, 1376, 738, -828, -451, 279, -1250, -1699, 202, 
39, -203, -140, 455, 29, -33, 18, 126, 136, -76, -421, -278, 152, 226, -172, -376, 
164, 335, 120, -182, -117, 179, -40, 13, -43, 318, 264, 1197, -100, 1842, 962, 799, 
1626, -700, -1817, -1330, -183, 423, 1446, -276, 97, -843, 457, 404, 568, -1685, -1044, 595, 
177, -810, -280, 939, 991, -1703, 2212, -781, 1088, 1659, 1788, 1621, -577, -1546, 69, -1218, 
2194, -227, -497, 1566, 2063, 1073, -364, 1926, -2323, 202, -65, 904, -263, 977, 158, 359, 
-735, 545, -469, 123, -722, 530, -226, 1486, -133, -699, -478, -2576, -1499, -271, -1618, -1973, 
-2190, -1541, 198, -324, 841, -379, 461, -875, -1381, -812, 271, -1491, 821, 354, 1265, -2239, 
-2051, 1589, -921, 1648, 323, 975, 406, 349, 1741, 1403, 75, -1792, 367, -623, -1769, 271, 
653, -1183, -1312, 413, -1577, 1439, -49, -357, 0, 1390, 949, 1342, -1445, -1369, -1581, -269, 
-520, -366, 751, 494, 755, -2075, -1820, -2035, -256, -318, -236, 517, 401, 651, -1785, -1530, 
-1780, -2276, -100, -392, 1124, 962, 930, -176, 1416, -598, 1146, 1312, 35, 857, -1838, -687, 
-1419, -1245, 2032, -69, -779, -2240, 840, -1704, 812, 906, -115, -481, -1181, 1404, -562, -735, 
541, -471, 195, 97, 711, 46, -501, -1045, -104, -166, -445, 1106, 1026, -76, -92, 1164, 
388, 529, -374, 340, 919, 938, -509, -2059, 735, -150, -1959, 485, -372, -2091, 599, -190, 
-1691, 736, -182, -1548, 443, -158, -1701, 984, -225, -1835, 611, -151, -1674, 15, -379, -1811, 
574, 2, 1746, 977, 222, -1654, -828, -1280, -1860, 993, 701, 352, 291, 1966, 681, -837, 
208, 485, -75, 525, 305, -373, -690, -107, 924, -765, -741, 1354, -1161, 1428, 1455, -1228, 
1493, 2114, -1309, -1917, 762, 1791, -1735, 169, -308, -1877, -1893, -1033, 1718, -445, 846, -1253, 
1710, 623, -1056, -2126, -401, 1072, 1415, -1928, -1492, -1812, -446, -2344, -1489, -1984, -652, -904, 
-593, -320, 294, 1227, -1210, 1236, 486, 257, 53, 1119, 187, 508, 1208, -621, -649, 0, 
1011, 1587, -434, -1288, -1594, -684, 1833, -2576, -562, 144, 1484, -810, 2317, 2187, 257, 402, 
-398, 2421, -861, -1303, 64, -599, 376, 118, 1737, -3134, 696, 1714, -2190, 2355, -990, -207, 
953, 114, -54, 915, -107, -342, 1919, -321, -686, 1401, 36, -414, 384, -350, -582, 977, 
1211, -122, 933, 236, -991, 593, 313, -361, 381, -912, -1285, -656, -858, -342, -1525, -1208, 
-577, -558, -1269, 539, -269, -445, -772, 460, -16, -18, -790, 2112, 708, 1039, 1182, 1085, 
1009, 1314, 592, 1450, 1155, -323, 1607, -3009, -1424, 1498, 1039, 1726, 652, 1782, 1721, 621, 
1011, -2401, 1455, 376, -1407, -1185, 167, 2399, 2200, -1539, -1542, -277, 1974, 608, -918, -206, 
24, 906, 97, 711, -868, -900, 1040, -672, -379, 307, 214, -1039, 459, -587, 114, 121, 
1176, 616, -670, 436, 589, -44, 627, 541, 235, -1668, -1549, 59, -6938, 540, 341, 328, 
-139, 1635, -1644, -1859, 1232, -4451, 432, -17, 242, 195, 97, -1302, 354, 1034, -456, 96, 
1099, 2357, -441, -645, 198, 893, -1193, -1945, 148, 2060, -1557, -1222, 478, 1801, -2889, 455, 
-961, -802, -307, -1537, -26, -1345, -1843, 1864, -731, -117, -87, 141, 1939, 1054, 1607, -1547};


const int conv1_b[32] = {
32247746, -108256, 34073024, 4176291, -1726, 34581224, 10060207, -11071018, 
-14351070, -25427768, 24099230, 5386088, 15608305, -3774786, 5267778, -30674092, 
43359736, 48251664, 4561723, 12399712, 10082654, 4056834, 14713620, 56279296, 
53812584, 39822676, -1209589, 50175, -12048437, 3230231, 3755259, 57882276};


const short conv2_w[9216] = {
-71, 171, 30, -58, 37, 69, -146, 22, 23, -119, -237, -115, 256, 76, 32, 302, 
311, 274, 114, 86, 93, 79, 64, 140, 75, 1, 77, 204, 144, 104, 102, 44, 
72, 329, 270, 229, 0, 0, 0, 0, 0, 0, 0, 0, 0, -245, 60, 56, 
-264, -12, -30, -63, -39, 13, 69, -44, -154, -84, -260, -293, 177, 3, -171, -119, 
-60, -178, -140, -114, -162, 2, -22, -113, 168, -25, -157, 295, -131, -161, 512, 45, 
-7, 127, -170, -271, 315, 299, 221, 373, 189, 113, -77, -33, -61, -129, -180, -273, 
-208, -202, -303, -177, -198, -412, 58, -33, -169, -9, -177, -256, -253, -113, 26, 27, 
-31, 10, 23, 37, 21, 69, 37, 10, 88, 59, 25, 18, 23, 45, 310, 216, 
217, 120, 54, 107, 25, -42, -50, 43, -56, -140, 121, -4, -103, 272, 48, -79, 
194, 297, 354, 137, 199, 142, -201, -146, -316, 220, 142, 121, 57, 98, 211, 96, 
18, 48, -100, -89, 19, -52, -104, -82, 95, 52, 137, 143, 340, 505, 1, 0, 
229, -126, 82, 140, 34, 52, -21, 16, -10, -120, 129, 159, 34, -3, 108, 61, 
-46, 70, 37, 18, 25, -45, -28, 39, -89, 167, 138, 184, 101, 137, 81, 156, 
189, 239, -1, 22, 66, 23, 34, 66, 16, 83, -75, 29, 183, 32, 0, 214, 
76, -14, 34, 3, 12, 28, 23, -56, -29, -84, -71, -340, -669, -135, -183, -429, 
-58, -137, -389, -440, -412, -517, -293, -327, -341, -104, -209, -220, -273, -436, -668, -58, 
60, -171, 125, -210, -178, -108, 14, -226, -96, 150, -10, -88, 190, -23, -260, -80, 
-824, 195, 252, 54, 117, 32, -174, -110, 69, 121, -63, 108, -25, -291, -39, -35, 
0, 0, 0, 0, 0, 0, 0, 0, 0, 0, 0, 0, 0, 0, 0, 0, 
0, 0, 0, 0, 0, 0, 0, 0, 0, 0, 0, 0, 0, 0, 0, 0, 
0, 0, 0, 0, 0, 0, 0, 0, 0, 0, 0, 0, 0, 0, 0, 0, 
0, 0, 0, 0, 0, 0, 0, 0, 0, 0, 0, 0, 0, 0, 0, 0, 
0, 0, 0, 0, 0, 0, 0, 0, 0, 0, 0, 0, 0, 0, 0, 0, 
0, 0, 0, 0, 0, 0, 0, 0, 0, 0, 0, 0, 0, 0, 0, 0, 
0, 0, 0, 0, 0, 0, 0, 0, 0, 0, 0, 0, 0, 0, 0, 0, 
0, 0, 0, 0, 0, 0, 0, 0, 0, 0, 0, 0, 0, 0, 0, 0, 
0, 0, 0, 0, 0, 0, 0, 0, 0, 0, 0, 0, 0, 0, 0, 0, 
0, 0, 0, 0, 0, 0, 0, 0, 0, 0, 0, 0, 0, 0, 0, 0, 
0, 0, 0, 0, 0, 0, 0, 0, 0, 0, 0, 0, 0, 0, 0, 0, 
0, 0, 0, 0, 0, 0, 0, 0, 0, 0, 0, 0, 0, 0, 0, 0, 
0, 0, 0, 0, 0, 0, 0, 0, 0, 0, 0, 0, 0, 0, 0, 0, 
0, 0, 0, 0, 0, 0, 0, 0, 0, 0, 0, 0, 0, 0, 0, 0, 
0, 0, 0, 0, 0, 0, 0, 0, 0, 0, 0, 0, 0, 0, 0, 0, 
0, 0, 0, 0, 0, 0, 0, 0, 0, 0, 0, 0, 0, 0, 0, 0, 
0, 0, 0, 0, 0, 0, 0, 0, 0, 0, 0, 0, 0, 0, 0, 0, 
0, 0, 0, 0, 0, 0, 0, 0, 0, 0, 0, 0, 0, 0, 0, 0, 
-8, 147, -284, 154, 583, 189, -90, 110, 188, -1081, -453, -460, -970, -433, -436, -1302, 
-653, -599, 114, -20, -139, 116, 371, 352, -4, 241, 94, -103, -274, -277, 258, -67, 
-248, -40, -522, -1086, 0, 0, 0, 0, 0, 0, 0, 0, 0, 364, 190, 426, 
559, 501, 254, 942, 706, 843, -372, -66, 268, 108, 663, 529, -1198, -544, -645, -134, 
4, 10, -284, 51, 171, -419, -730, -604, -303, -318, -288, -398, 168, -46, -1154, -525, 
42, -425, -342, -115, -204, 51, -46, -237, -140, -468, -359, -93, -145, 13, -17, -72, 
417, -63, -127, -282, 275, -67, 72, -227, -117, -148, 412, 483, -92, 240, -139, -47, 
3, 64, 275, 258, 209, 89, -137, -33, 295, -95, -125, 621, 441, 276, -97, -91, 
-137, -244, 178, 6, -581, 10, 502, -119, 152, 118, -29, 476, 541, -926, 214, 132, 
-342, -499, -733, -89, -13, -372, 47, 270, -219, -95, -99, -21, 200, 542, 355, 69, 
258, -336, -56, -176, -157, -447, -437, -345, -2215, -2028, -2239, 65, 148, -178, 329, 118, 
-272, 539, 310, -336, 321, 249, 149, 437, 233, 643, -640, -109, -196, -1376, -285, 81, 
-1232, -161, -27, -1476, -147, 138, 46, -133, -376, 721, 408, -249, 1137, 737, 79, -292, 
-147, -644, 465, 465, 55, -315, -140, -635, -389, -474, -187, -87, 7, 7, -206, -336, 
-505, -104, 79, 158, 659, 421, 467, 213, 606, 451, 283, -184, -536, 362, 216, -124, 
676, 310, -789, 361, 395, 164, 498, 532, 342, -156, 70, -155, -79, -184, 158, -99, 
-196, -447, -461, -329, -210, 117, -115, -278, 137, -130, -274, 257, 71, 342, -520, 147, 
-106, -1025, -706, -705, -702, -678, -1136, -274, -178, -281, -264, 175, -330, -411, 144, 128, 
-227, -81, 0, -118, 134, 306, -312, -34, 289, 45, -245, -52, -74, -102, 196, -137, 
-52, 233, 448, 226, 4, 244, 129, 36, 561, 549, 418, 71, -349, -288, 75, -771, 
-93, 551, 177, 16, 0, 0, 0, 0, 0, 0, 0, 0, 0, 484, 593, 873, 
-57, 187, 117, -883, -233, -66, -236, 111, -173, -166, 249, 126, 47, -11, 36, 219, 
-130, -132, -518, 200, -117, -507, -335, -330, 259, -234, -571, 144, -370, -23, 914, 579, 
12, 136, 181, 13, 170, 36, -3, 316, 445, 250, -218, 135, 204, -315, 49, 72, 
-344, -96, -57, 109, 333, 458, -164, 7, 464, -621, 355, 60, 480, 279, 697, -9, 
-139, 282, 157, 98, 310, -70, 288, 423, -384, 52, 583, -311, -46, 358, 13, -353, 
143, 340, -26, 131, 2, -139, 163, 241, 220, -269, -3, -6, -36, -76, -106, -234, 
45, 91, 400, -289, -273, 467, 204, 255, 1041, -71, -352, 215, -87, 138, 331, 170, 
264, 388, 122, 173, 305, -320, -219, -51, 280, 47, -18, -113, -361, -690, 409, 47, 
-525, 371, 316, -214, 51, 77, 27, 345, 318, 394, 360, 337, 298, 32, 214, 122, 
-104, 192, -46, 76, 353, -143, 326, 197, -264, 299, 286, -6, 216, 305, -39, 146, 
31, -432, 87, 249, 552, 101, 66, -73, -79, 160, 396, -403, 264, 300, -304, -3, 
-87, 141, 30, 559, -327, 135, 540, 79, 174, 681, -382, -209, -678, -350, 231, -363, 
-703, 283, -698, -169, -172, -656, 103, 562, 99, 191, 54, -367, -181, -35, 150, -546, 
-260, 9, -161, 61, 249, 103, 198, 178, 179, 88, 318, 74, 135, 99, 290, 67, 
-1004, 133, 609, -1251, -62, 486, -558, -122, 270, 564, -328, -32, 354, -329, 174, 305, 
83, 248, -43, 410, 649, 328, 199, -418, -4, -127, -24, -185, 65, -26, -156, 253, 
-61, 348, -18, 310, -1007, -534, 619, -425, -64, 584, 319, 146, -326, 10, -570, 393, 
140, -538, -278, -310, 0, 0, 0, 0, 0, 0, 0, 0, 0, 105, -396, 648, 
367, 62, 626, 310, 301, 326, -410, 672, -68, -321, 60, -317, 522, -337, -484, -609, 
-502, 462, -631, -382, -4, 476, -508, -34, -917, 19, -276, -607, 1, -123, 70, -64, 
-573, 164, 128, 341, 132, 196, 437, 453, 445, 837, 41, -858, 117, -266, -481, -576, 
338, -224, -403, 559, -305, 230, 403, -122, 93, -12, 255, -109, -138, -211, -115, 40, 
312, 201, 0, 239, 105, 183, -33, 250, -174, -399, -15, 463, 140, 224, 321, -690, 
-567, 238, 178, 131, 627, 186, -342, 645, 676, 775, -365, 572, 14, 478, 641, -169, 
-434, 65, -198, 124, 102, -280, -137, 477, -200, -153, 247, 376, -76, 438, 206, -346, 
543, -363, -237, -338, -344, -643, -308, -179, -1160, -1089, -1398, -97, -20, 433, -402, -470, 
330, 100, 387, -39, -303, 270, 447, -588, -155, 101, -477, -469, -551, -422, 3, 380, 
-230, -136, 184, -343, -134, 228, 78, 235, -44, -422, -202, 298, 128, 420, 437, 348, 
-269, 104, -238, 214, 199, 246, 574, -222, 383, 267, -355, 122, 640, 509, 206, -336, 
-212, 320, -101, -306, -132, -507, -14, -73, -131, 32, -398, 477, -146, 743, -323, 384, 
157, -157, 475, -599, -1024, -1109, 40, -420, -586, -639, -359, -572, -164, 531, -581, -130, 
321, -73, 39, -584, 213, -157, -401, 157, 210, 62, -331, -23, 88, -317, -768, -1186, 
-1273, -709, -146, -896, -460, -435, -848, -39, 826, 663, -269, -167, -40, -108, 509, -303, 
28, 110, -241, -49, 660, -217, 172, 390, -257, -488, -17, -43, -121, 21, -26, -29, 
186, 106, 5, -32, 67, -264, 97, -704, -321, -188, -776, 408, -172, -537, -306, 93, 
-258, -61, 444, 100, 0, 0, 0, 0, 0, 0, 0, 0, 0, 1246, 636, 1327, 
-330, -2251, -506, 1247, 337, 763, -95, 228, -86, 367, 590, 425, 192, -1, 543, -252, 
-128, 223, 394, 815, 474, 127, 782, 1359, -478, -132, -891, -220, 252, -22, 73, -265, 
-257, 78, 39, 225, -151, -9, 102, -213, -52, -105, 296, -64, 47, 315, 135, 176, 
-69, 346, 169, -59, -210, 184, 210, 340, 291, 333, -223, 103, -716, -56, 191, 171, 
-80, -151, -109, -292, -356, 243, 364, 340, -72, -306, -501, -373, -609, -668, -68, 167, 
-331, 823, -503, 91, 459, 215, -189, 91, -281, 409, 159, -137, 322, 285, 669, 421, 
-484, 346, -561, -744, -319, -936, -1754, -1187, -1996, 536, 420, -94, 261, 638, -215, -97, 
-294, 226, -130, 42, -12, 421, 447, 160, 413, 583, 676, 485, 398, 154, 365, 410, 
62, 26, 43, -27, 768, -103, -187, 59, -57, -419, 143, 530, -289, -270, -581, 207, 
0, -738, 156, 472, -534, 34, -914, -293, -154, -464, -128, 33, -682, -639, -331, -81, 
178, -400, 164, 1121, 100, -612, 55, -190, 897, 622, 424, -58, 590, 210, 403, -240, 
204, 349, 503, 184, -205, 448, -208, -495, -684, -355, 640, 161, 470, -1, 369, 1231, 
-180, -380, 1235, -22, -925, -62, 314, -915, 162, 1196, -8, 839, -858, 257, -334, -110, 
624, 309, -1, -67, -293, -85, -205, -545, -327, -186, -227, -354, -503, -306, -1130, -963, 
407, -404, -383, 1469, -320, -29, 1001, 352, 884, -77, -195, 369, -191, -618, -586, -902, 
39, 379, 126, -18, 138, -269, -84, -240, -258, 135, 148, 20, 244, 80, -88, 193, 
74, 169, 291, 49, 114, 748, 254, 297, -59, -280, -361, -113, -63, 105, -52, 154, 
156, 174, 92, 307, 0, 0, 0, 0, 0, 0, 0, 0, 0, -541, 9, 70, 
-411, 238, 91, -1102, -343, -962, 333, 191, 154, 82, -706, -165, 457, 127, 408, -917, 
-35, 46, -671, -116, 98, -131, 34, -9, 350, -174, 99, 464, 3, 486, 467, -108, 
237, 215, 192, 172, 430, -3, -242, 500, 180, -102, 529, 163, -26, 439, 188, 99, 
713, -104, -103, -267, 300, -139, 301, 295, -214, -355, -98, -711, -320, 206, -136, 17, 
433, 227, -75, 11, -179, 357, 184, -87, 510, 107, -407, 95, -72, -260, 225, 211, 
-49, 77, 118, 97, -235, 445, 39, -406, -433, -458, -669, -266, 530, -298, 332, -185, 
485, 220, -75, 908, 519, 99, 1008, 359, -354, 480, -70, 37, 68, 126, 124, -10, 
286, 209, 6, -248, -48, 292, -192, -20, -118, -67, 480, 286, -207, -204, 425, -298, 
-336, 138, -80, 267, 3, 428, -214, 110, 516, -265, -113, 366, 119, -473, 6, -343, 
-377, -37, -366, -417, -139, -290, 161, 173, 207, -94, -322, -332, 175, 95, 26, 363, 
544, 131, -65, 445, -139, 0, 172, 463, 340, 158, 404, -229, 221, -200, -653, -550, 
-225, 147, -65, 173, 285, 54, -281, -60, -141, -117, 383, 11, 487, 173, -92, 191, 
54, -153, 596, -324, 177, 158, -200, 457, 577, -40, 581, 935, 88, 182, 333, -164, 
49, -296, 195, -293, -169, 30, 212, -25, -1, 131, 173, -58, -4, 68, -374, 102, 
448, -58, -28, 479, 87, 531, 517, 290, 292, -412, 446, 346, 180, 70, 230, -480, 
-345, -419, -494, -232, -270, -438, -267, -285, -533, 47, 24, 60, 323, 247, 213, 360, 
249, 256, 83, 85, -92, 187, 217, 42, 112, 168, -36, 180, 212, 242, 300, 394, 
438, 297, 336, 384, 0, 0, 0, 0, 0, 0, 0, 0, 0, 536, 503, 383, 
571, 548, 459, 465, 392, 356, -382, -367, -367, -215, -238, -281, -191, -174, -275, -170, 
-113, -178, -22, -20, 0, 104, 64, 19, 166, 308, 442, 162, 244, 293, 107, 154, 
199, 16, 2, 46, 310, 313, 392, 188, 171, 191, -241, -237, -282, -192, -194, -201, 
-350, -321, -298, -300, -66, -57, -148, -58, -117, -86, -59, -136, -202, 131, 334, -49, 
104, 166, -136, -3, 30, -15, -31, -124, -19, 7, -41, -63, -28, -40, -492, -450, 
-445, -204, -104, -133, -166, -91, -123, -162, 43, 54, 29, 140, 110, 114, 191, 169, 
192, 171, 128, 232, 218, 160, 250, 244, 197, -63, 77, -229, 58, 198, 86, -38, 
18, -20, -9, -9, -9, 267, 269, 273, 210, 213, 221, 116, 28, 42, 12, 87, 
-8, -17, -151, -256, -240, -211, -136, 75, 34, 17, 98, 75, -13, 343, 95, -5, 
332, 92, -6, 333, 88, -5, -52, 112, 300, 75, 140, 232, 31, 91, 96, -665, 
-698, -706, -409, -456, -574, -290, -273, -448, 218, 182, 200, 260, 258, 296, 228, 143, 
163, 177, 431, 413, 191, 370, 377, 138, 268, 271, 12, 205, -11, -26, 57, -113, 
-14, 8, -193, 423, 458, 664, 405, 405, 589, 366, 440, 681, -147, 160, 232, -226, 
-135, -132, -20, 29, -74, 58, 104, 195, 115, 118, 158, 98, 119, 118, 264, 140, 
83, 548, 381, 247, 371, 335, 230, -392, -403, -666, -99, -136, -360, -323, -398, -512, 
-98, -28, -155, -105, 251, 522, -615, -92, 543, -1040, -696, -377, -690, -526, -331, -890, 
-612, -463, 874, 191, 133, 695, 400, 424, 856, 711, 894, 410, 308, 410, 275, 270, 
61, 839, 141, 131, 0, 0, 0, 0, 0, 0, 0, 0, 0, -429, -92, -226, 
156, 548, 7, -173, 134, -381, 943, 228, -419, 692, 223, -655, 12, -58, -848, -238, 
-380, -444, -696, -493, -530, -309, -265, -771, 311, 162, 635, -26, -907, 217, 89, -60, 
433, 127, 349, 570, 532, 561, 615, 436, 384, 177, -31, -27, -602, 308, 554, -385, 
668, 235, -290, -709, -494, -773, -720, -162, -175, -1094, -755, -703, -904, -444, -726, 45, 
81, 19, 603, 559, 986, 73, 47, 12, 53, 17, 29, 56, 34, 43, 229, 406, 
934, -265, -267, 22, -353, -50, -278, -110, -230, 226, -365, 0, -57, -693, -319, -215, 
515, 445, 41, 623, 529, 15, 521, 383, -37, 477, 349, 76, 590, 773, 632, 140, 
262, 2, 42, -68, 34, -507, -702, -427, -433, -488, -379, 37, 145, 680, -60, -252, 
373, -262, -57, 257, -539, -234, 151, -336, 124, -78, -1017, -610, -552, -365, 120, -36, 
-307, 219, -69, -412, 41, -110, -38, 27, 389, -220, -176, 258, 173, -242, 395, 591, 
675, 126, 425, 446, 584, 531, 378, 504, -200, -11, -690, 6, 100, -37, -429, -353, 
-472, 238, -243, -809, -243, -194, -329, -284, -272, -488, -33, -284, -476, 191, -240, 200, 
-58, -91, -282, -768, -415, -365, -534, -177, -117, -717, -352, -291, 137, -322, -352, -226, 
49, -216, 34, -220, -103, -367, -181, -245, -236, 24, 17, -277, 41, 112, -174, -402, 
-212, 56, -23, -219, 66, -110, -6, -580, -455, -305, -135, -497, -102, -88, -552, -505, 
-20, -11, -20, -11, -29, -38, -23, -30, -23, 226, 91, 83, 193, 53, 70, 208, 
93, 87, -5, -6, 0, -12, -27, -9, -17, -26, -16, -27, -21, -13, -40, -38, 
-22, 0, 5, 8, 0, 0, 0, 0, 0, 0, 0, 0, 0, -8, 19, 8, 
14, 59, 45, -37, -2, -10, -38, -52, -50, -29, -55, -51, 25, 14, 19, -38, 
-47, -44, -54, -59, -60, -8, -20, -16, 31, -5, -9, 20, -26, -27, 32, -9, 
-10, -8, -16, -3, -22, -24, 10, 97, 100, 124, -69, -76, -60, -77, -80, -74, 
-83, -87, -73, 55, 26, 18, 36, -3, -12, 16, -16, -30, 59, 38, 30, 41, 
6, -4, -4, -41, -55, -1, -1, -1, -1, -3, -3, -1, -2, -3, 21, -9, 
-20, -6, -30, -47, 39, 6, -18, 16, -7, -10, 24, 3, -24, 43, 6, -3, 
-55, -57, -35, -79, -85, -61, -44, -53, -19, -10, -26, -8, -31, -28, -12, 3, 
8, 14, 1, 2, 2, -16, -16, -8, -8, -7, -6, 30, 2, -32, 15, -43, 
-29, 39, 32, 19, 11, -11, -29, 18, -8, -34, 70, 52, 26, -4, -4, 0, 
-4, -4, 0, -4, -3, 0, 45, 47, 32, 25, 13, 12, 1, -4, -5, -40, 
-41, -43, -31, -35, -39, -9, -1, -11, -39, -15, 5, -15, 9, 22, -5, 19, 
41, 36, -1, 13, 20, -4, 6, 16, 1, 17, -18, -16, 17, -43, -45, -9, 
-38, -30, -3, -3, 32, -1, 85, 132, 67, 10, 44, 0, 47, 29, 41, 27, 
7, 0, 7, -16, -3, 19, 25, 20, 19, 6, 0, 10, -6, -20, 51, 65, 
20, 28, 57, 17, 7, 17, -14, -39, -31, -40, -44, -37, -35, -23, -8, -15, 
-281, 230, -100, -89, 467, -233, -685, -360, -653, -355, -157, -177, -197, -129, -112, -74, 
-9, 0, 52, 403, -57, 25, 521, -176, -607, -328, -745, -69, -8, -105, -88, -56, 
-153, -122, -74, -187, 0, 0, 0, 0, 0, 0, 0, 0, 0, -81, 146, 61, 
-29, 240, 101, -538, -274, -410, -176, -49, -181, -50, -13, -200, -292, -233, -368, -155, 
-38, -68, -162, -110, -132, -148, -88, -210, -292, -83, -198, -225, -88, -187, -204, -29, 
-185, 119, 88, 25, 102, -5, -3, 61, -36, -18, 62, 123, -97, 36, 102, -178, 
-375, -305, -571, -599, -448, -528, -422, -240, -284, -508, -408, -472, -266, -4, -137, -128, 
120, 12, -332, -119, -270, 12, 15, 9, 8, 12, 9, -1, 0, -2, -106, 144, 
173, -206, 28, 53, -306, -153, -205, -112, 46, 232, -150, 31, 35, -220, -148, -87, 
328, 746, 443, 258, 744, 392, -582, -77, -435, -78, 361, -205, 3, 404, -99, -900, 
-502, -959, -42, -12, -19, -36, 30, 15, -143, -104, -94, 114, 348, 147, 89, 198, 
124, -153, -31, -155, -211, -117, -69, -83, 6, -97, -312, -195, -304, -96, -40, -15, 
-50, 18, -2, -34, 19, -17, -266, -98, -304, -27, 178, -19, -274, -122, -295, -106, 
409, -75, 56, 591, -3, -980, -462, -1035, -142, 42, -383, 29, 284, -309, -809, -574, 
-972, -307, 164, -376, -57, 191, -255, -766, -509, -850, -106, -134, -523, -35, -134, -445, 
-79, -181, -365, -492, -557, -534, -402, -470, -451, -202, -276, -258, -581, -327, -528, 12, 
209, -168, -128, -17, -164, -71, -19, -45, -43, 95, -31, -102, -16, -108, -120, -107, 
-121, -97, -104, -128, -44, -32, -28, -65, 505, 92, -102, 639, -3, -1020, -416, -952, 
-35, -127, -42, -78, -117, -102, 48, -125, -69, -49, -37, -55, -182, -159, -186, -150, 
-104, -272, 214, 159, 15, 274, 32, -38, 167, 62, -70, 93, 39, 228, 52, -20, 
192, 111, 184, 276, 0, 0, 0, 0, 0, 0, 0, 0, 0, -21, 1, -38, 
-67, -86, -97, -25, -117, -91, 20, -204, -404, 108, -79, -432, 228, 167, -5, 87, 
-72, 102, 267, 0, 81, 237, 118, 155, -64, 266, -13, -100, 332, -6, -259, 22, 
-213, -20, -71, -135, -66, -123, -141, -288, -144, -211, -66, -246, -252, 36, -91, -117, 
-141, -123, -181, -225, -302, -395, -248, -342, -350, -46, -182, -243, -75, -104, -11, -105, 
-98, 0, 60, -44, -152, -46, -35, -28, -23, -9, -46, -59, -28, -45, 109, 52, 
106, 223, 35, 128, 75, -109, -93, 102, 84, 55, 236, 96, 50, 271, -31, 127, 
-11, -91, -14, -90, -158, -110, -25, -80, -43, 45, 59, 130, 46, -31, 43, 179, 
53, 209, 23, 26, 21, 53, 54, 19, 99, 105, 100, 32, 153, 276, 121, 291, 
255, 1, 69, 23, -290, -299, -308, -179, -186, -237, 21, -7, -132, 114, 0, 7, 
116, 0, 10, 128, 0, 14, 167, 240, 307, -65, 61, 218, 42, 306, 368, -150, 
-150, -40, -52, 0, -57, 179, 203, 110, -278, -1, -77, -337, -39, -211, -173, 93, 
-17, 121, -28, 66, -38, -23, -74, 89, -142, -13, -187, 40, 146, -230, 15, 172, 
-204, 60, 364, -9, 2, 6, -40, -39, -37, -65, -69, -64, 25, 117, -77, -91, 
-159, -188, 253, 33, 157, -140, -136, 26, -101, -113, 21, -33, -52, -1, 133, 161, 
308, 19, 39, 201, 0, 34, 125, -215, -24, -105, -180, 27, -82, -170, -170, -212, 
79, 169, 392, -32, -17, -46, -302, -59, 603, -266, -133, 103, -177, 77, 249, 145, 
-100, 150, -184, -228, 205, -319, -289, -142, 142, 222, 380, -126, -342, -367, -437, -326, 
-122, 84, -30, 126, 0, 0, 0, 0, 0, 0, 0, 0, 0, 333, 579, 1162, 
-162, -435, 83, 125, -389, 222, 50, 203, 159, -174, 264, 262, -97, -207, -91, 111, 
-370, 397, 234, -151, 560, -36, 210, -37, -456, -363, -501, -304, -148, -731, -29, -246, 
-41, -132, -188, -18, -144, 243, 319, -159, 257, 519, -50, 124, 197, -457, -40, 119, 
-187, -82, 36, -136, 192, -149, 274, 202, -252, 220, 494, 179, 60, 355, 465, 140, 
-743, -163, -57, -134, 384, -92, 354, 804, -378, -97, 457, -310, -116, 260, 220, -183, 
338, 413, 111, 25, 236, -102, 358, 483, -322, -699, -39, -255, -110, 195, -114, 316, 
-775, -322, 455, -887, -455, 81, -659, -269, 74, -196, -102, 753, -550, -42, 263, -158, 
340, 111, -79, 110, 160, -349, -131, -143, -163, -10, -339, -352, -46, 126, -500, -125, 
-721, -192, 84, 48, 474, -107, -269, 5, -88, 0, 33, -3, -298, 102, -31, 463, 
91, -240, 372, 204, -221, 364, -161, 209, -131, 19, 190, -8, 204, 417, 103, 110, 
346, 574, -127, 646, 151, -180, -11, -284, 594, 532, 652, 422, -24, 33, -8, 99, 
180, -2, 255, 951, -378, -555, 420, -168, -521, -92, 256, 206, 136, -348, 298, -67, 
-157, 323, -33, -294, -477, -842, 222, 86, 35, 338, -345, -404, 818, 318, 83, 463, 
109, 411, -442, 178, -237, 158, 28, -126, -243, -201, -33, -74, -16, -55, -521, -332, 
-1830, 64, 234, -387, 122, 191, -749, -270, -9, 763, -828, 28, -101, -1044, -437, 200, 
-538, 665, -951, 281, 638, 117, -738, 163, -744, -2641, -1327, -2155, -1926, -1075, -1939, -2425, 
-1654, -2416, 44, 198, -502, -431, 981, -14, -1173, -303, -1205, 470, 202, -297, 193, 411, 
-300, -285, -338, -945, 0, 0, 0, 0, 0, 0, 0, 0, 0, 75, 647, -347, 
204, 673, -15, 81, 319, -186, -465, 89, -390, -567, 290, 429, -718, -344, -936, -675, 
-157, -99, -480, 54, -30, -850, -324, -769, -438, -192, -220, -184, -50, -110, -409, -139, 
-336, 264, 193, -48, 217, 212, 68, 68, 46, -146, 377, 383, 182, 178, 313, 74, 
-260, -318, -909, -503, 469, -486, 186, 211, 264, -45, 587, 59, -122, 478, 74, 60, 
469, 78, -372, 114, -27, 19, 24, 10, 19, 25, 13, 8, 24, 13, -386, 507, 
393, -868, -69, -431, -592, -7, -450, -134, 453, 532, 166, 507, 432, -121, 191, 199, 
-32, 1224, -279, 339, 1445, 44, -969, 0, -717, -204, 202, -14, 299, 861, 362, -510, 
-389, -1089, -649, -668, -497, -1048, -976, -935, -313, -41, -123, -165, 538, -83, -341, -149, 
-235, -94, -141, -539, 678, 791, -183, 378, 203, 27, -737, 152, -702, -318, -563, -291, 
-138, -477, -488, -117, -390, -354, -647, 479, -773, 357, 981, 453, 92, 164, -288, -369, 
724, 263, -524, 679, -550, -954, 15, -1429, -435, 974, -270, -301, 743, 369, -1121, 694, 
-866, 144, 1074, -461, -199, 1332, 423, -1111, 406, -1271, 425, 434, -739, -18, 312, -34, 
-307, 15, -1745, -981, -1038, -1196, -642, -679, -772, -468, -497, -605, -1728, -867, -1693, -406, 
-107, -707, -1070, -550, -905, 422, 18, -235, 495, 213, -181, 233, 120, -136, -385, -52, 
-315, -768, -283, -314, -441, -218, -162, 457, 1421, 158, -441, 530, 483, -1258, -284, -1051, 
-85, 88, 10, 57, -162, -91, 346, 337, 54, 54, -8, 19, 90, -154, -60, 86, 
99, -128, -41, -74, -106, -100, -264, -110, -409, -81, -14, 45, -31, -80, 171, -45, 
144, 148, 47, -89, 0, 0, 0, 0, 0, 0, 0, 0, 0, -479, 228, 186, 
-711, -114, -70, 18, 440, 820, -39, 52, 69, -22, 58, 252, 346, 93, 215, -331, 
-105, -150, -52, 126, 60, 618, 397, 563, -48, 322, -101, 46, -205, 54, -83, -467, 
-301, -152, -116, -82, 162, 106, 135, -152, 11, -35, -47, -154, -150, -132, -103, -61, 
-82, -154, 126, -189, 3, -66, 38, -105, 44, 93, 188, 263, -237, 6, 55, -59, 
-79, -194, -379, -230, -233, -74, 218, 400, -171, -120, 74, -155, -173, -71, -36, -114, 
-13, -35, -224, 31, 250, 114, 267, -318, -186, 75, -13, 88, 127, 315, 247, 268, 
354, 255, 446, -40, -421, -307, -94, -253, -201, 90, -117, 97, -11, -80, 83, 120, 
59, -43, 138, 101, 98, -36, -123, -124, 254, -28, -39, 439, 1079, 660, 521, 117, 
363, -244, -163, -228, 49, -21, -116, 92, 110, 0, 322, 263, 27, 75, -52, -157, 
86, -12, -238, 182, 27, -170, -79, 44, 99, 129, 172, 125, -69, -95, -233, 88, 
89, -33, -80, 120, -34, -43, -69, -349, 76, -117, 56, -197, 174, -16, -78, 226, 
485, -162, 25, 79, -17, -6, -13, 138, 55, 181, 302, 10, -37, 181, 3, -59, 
145, 17, 4, -446, -250, -439, 59, -102, -285, 128, -504, -772, -94, -265, 43, -195, 
147, 216, 355, 86, 335, -129, -30, -96, -143, -142, -230, -262, -101, -309, -688, -400, 
-829, 146, 484, 166, 144, 100, -329, 414, 139, 124, 391, 34, -19, 667, 460, 399, 
-255, -105, -229, -422, -273, -290, -171, -496, -516, 416, 409, 698, 713, 547, 791, 705, 
378, 1007, 914, 522, -44, 1151, 675, 193, 511, 488, 354, 647, 674, 584, 687, 414, 
559, 796, 609, 866, 0, 0, 0, 0, 0, 0, 0, 0, 0, 555, 326, 554, 
626, 276, 733, 269, 95, 421, 329, 244, -517, -329, -388, -958, -246, -447, -763, -80, 
146, 103, -151, -474, -275, 272, -180, -396, 262, 1104, 953, 297, 724, 844, 66, 429, 
486, -212, -446, 179, -9, -251, 252, 105, -104, 112, -140, -567, -576, -164, -295, -317, 
-480, -593, -567, -275, -110, -563, -394, 177, -192, -784, -968, -1596, -956, -303, -169, -270, 
53, 698, -832, -451, -50, -60, 94, -51, 18, 305, 139, -191, 37, -27, -337, 24, 
55, 343, 387, 500, -115, -380, 123, -154, 382, 170, -346, -369, 288, -303, 37, 679, 
-815, -972, -773, -346, -411, -346, -575, -686, -467, 574, 473, 289, -1, 550, -245, 68, 
166, 267, -89, -92, -188, 350, 321, 221, 228, 70, 138, 26, 243, 389, -106, 30, 
192, -352, -341, -210, 7, -201, 251, -11, 16, 69, 189, 609, 277, 750, 45, -118, 
676, -9, -41, 769, -50, -85, 919, 666, 701, 10, -38, 143, 32, 295, 438, -117, 
183, -527, -744, -327, -20, -131, -471, -600, 640, 78, 726, 401, 174, 427, 458, 466, 
108, 264, 1090, 591, 378, 386, 246, -230, 44, -188, -264, -389, 43, 405, 270, -234, 
-568, -305, -547, -629, -453, -410, -868, -632, -591, -879, -715, -692, 81, -133, -328, -163, 
308, -32, -500, -522, -544, -284, 195, 156, -131, 439, 173, -158, 372, 308, -25, -131, 
257, -25, -196, -17, -88, 16, 275, -602, -656, 32, -178, -155, 248, -394, -862, -341, 
-769, -382, -13, 646, 839, 454, -485, 181, 520, -2428, -1983, -2126, -1338, -1268, -1649, -2093, 
-1798, -2208, -908, 104, -99, -198, 454, 401, -492, 541, 70, -114, -336, -409, 62, 196, 
-56, -400, -403, -862, 0, 0, 0, 0, 0, 0, 0, 0, 0, -283, -101, -360, 
-48, 360, 89, -247, -27, 7, -459, -25, 44, -402, 256, 954, -463, -182, 96, -421, 
-380, -442, -442, 169, -104, -961, -193, -717, -352, -555, -796, -348, -184, -473, -887, -300, 
-486, -296, -272, -550, -187, -27, -614, -91, -195, -1311, 276, -333, 306, -279, 414, 149, 
18, 140, 41, -413, -193, -38, -56, -270, 550, 200, 336, 329, -597, 38, 152, 580, 
319, -282, -76, -296, 14, 32, 38, 17, 44, 39, 24, 47, 44, 39, -346, 291, 
-82, 256, 470, -27, -212, -99, 515, 299, -54, -433, 617, 347, 262, -493, 289, 186, 
-1080, -542, -186, -287, 38, 143, -949, -828, -209, -622, 397, -126, -141, 1076, 258, -352, 
538, 77, -316, -339, -174, -477, -426, -384, -1351, -1226, -1284, -257, -183, -230, 312, 98, 
12, 542, 127, -617, 578, 606, 839, 168, 14, 428, -703, -110, -306, -852, -385, -100, 
-658, -210, -154, -708, -129, -85, -1322, -176, -486, 265, 261, -27, 394, 129, -500, -826, 
-140, -127, 231, 556, 667, -470, 127, -368, -175, -484, -843, 54, 458, 477, -209, -113, 
189, -87, -161, 131, 616, 974, 503, -20, 81, 501, 638, 214, -811, 309, 81, 432, 
329, -189, -990, 488, 377, -57, 595, 488, 117, 321, 244, -116, -530, -574, -715, 341, 
128, -272, -385, -192, -394, 432, 64, -756, 283, 58, 98, 50, -125, 143, -1095, -774, 
-1702, -1134, -779, -1386, -941, -859, -1375, -473, -52, 437, -37, 422, 356, -752, 76, 575, 
-429, 120, 14, 20, -149, -384, 69, 131, 752, 290, 38, 63, 135, 50, 66, -1, 
-105, -100, -36, -749, -471, 192, -657, 100, -13, 98, -56, 3, -295, 242, -150, -275, 
-451, 213, -521, -5, 0, 0, 0, 0, 0, 0, 0, 0, 0, -697, -413, -408, 
272, 651, 206, 458, 345, 293, 107, 322, 93, 32, 139, -266, -221, 177, 44, 33, 
39, 274, 158, -239, -112, 218, -53, 183, -155, -262, 6, 225, 120, 97, -52, -589, 
83, -6, 29, 89, 116, 264, 86, 318, 156, 620, -491, -156, -115, -86, -142, -148, 
-9, -300, 253, 207, 383, -275, -33, 10, 347, 308, -154, 5, -497, -284, -400, 154, 
142, -146, 404, -396, -303, -292, -559, -193, 83, -147, 15, 396, 394, 375, -207, 528, 
381, -262, 165, 176, -164, 301, 156, 341, 490, 469, -220, -431, 280, -166, -557, 160, 
-1164, -991, -819, -391, -92, -214, 76, 477, 229, -579, -251, -778, -128, -43, -287, 15, 
672, -5, -169, -176, -119, 33, -74, -64, -1244, -1022, -1105, -127, -216, 99, 143, 176, 
72, 124, 40, 321, -249, -508, 252, -521, -188, -323, -119, 180, -135, -136, 70, -315, 
-127, 67, -208, -340, -137, -22, -84, -298, -283, -344, 113, 122, 383, 476, 200, -85, 
341, 96, -359, 375, 386, 0, 535, 467, -16, -144, 7, 23, -235, -17, 439, 1032, 
43, 207, 244, 191, -566, -95, 32, 314, 326, 541, -317, -255, 172, 24, -474, -328, 
573, 43, -89, 721, 281, 102, 63, -373, -350, -808, -786, -955, 385, 353, 84, -382, 
316, 316, 443, -414, 642, -117, -412, -269, -388, -315, -417, -10, -282, -111, -8, 405, 
276, -636, -623, 71, -356, -187, -753, -934, -775, -653, -74, 305, -43, 459, 184, 482, 
130, 40, -270, -670, 319, -486, -65, -2, -214, -571, -90, -270, -549, -138, -374, -473, 
-290, -220, 820, 774, 30, 304, -63, 222, 537, 485, 435, 264, 490, 283, 898, 595, 
257, 667, 125, 332, 0, 0, 0, 0, 0, 0, 0, 0, 0, -508, -131, -23, 
-151, 392, 290, -104, 314, -235, 362, -52, -609, 91, -129, -444, -27, -174, -607, -435, 
-147, -252, -140, -116, 509, -431, -612, -505, 98, -671, 195, -335, -705, -495, -55, -526, 
140, 29, 88, 120, 452, 185, -26, 279, -15, -226, -117, 114, -368, 510, -107, -578, 
608, 281, -235, -559, -724, 343, -472, 63, -13, -1005, -561, -258, -608, 176, -548, 182, 
116, -143, 415, 655, -18, 279, 101, 86, 200, -159, -143, 235, 54, 32, -95, -473, 
363, 394, -183, 568, 132, 524, 101, -40, -497, 129, -119, 145, 112, -749, -466, 16, 
112, 140, -247, 119, 20, -228, 290, 544, -202, -142, 459, 125, -177, 180, -217, 316, 
903, 27, 29, -77, 52, -633, -1051, -579, -1057, -883, -749, 457, -68, 415, 15, -554, 
108, -29, 103, -73, 363, -280, -216, -277, -353, -244, -556, -267, -502, -1108, 196, -107, 
-968, 311, -162, -1069, 99, -123, -319, -176, 84, -146, 294, 99, 222, 105, 584, 812, 
777, 502, 20, 669, 217, 534, 287, 425, -459, 168, -114, -383, 435, -218, -467, 310, 
-249, -34, -376, 261, -457, 50, -56, 448, -132, 32, 38, -142, -382, 493, -34, -591, 
370, 268, -47, -213, -209, -285, 243, 279, 176, -333, -189, -216, -677, 119, -359, 457, 
-148, 544, -552, 392, -149, -477, 93, -147, -117, -126, -22, -297, 249, -190, -1313, -1132, 
-1382, -493, -146, -277, -97, -203, -282, -373, -213, -600, -531, 416, -459, -103, -308, -538, 
95, 277, 13, 120, -316, -79, 152, -123, -148, 1065, 614, 283, 991, 615, 175, 1049, 
667, 507, 105, 55, -158, -306, -374, -530, -215, -466, -337, -212, -52, -86, 53, -166, 
-88, -308, -19, 160, 0, 0, 0, 0, 0, 0, 0, 0, 0, -251, 92, 485, 
22, 272, 563, 161, 312, 219, -182, 68, 479, -368, 1, 483, 41, 273, 618, -478, 
-38, -77, -22, 155, 163, -191, 102, 245, 261, 1, 162, 190, -145, 154, 335, 61, 
87, 303, 157, 153, 376, 116, 310, 279, 122, 497, 48, 8, 387, -259, -164, 193, 
-260, -374, 206, 525, 559, 648, 322, 294, 555, 553, 594, 772, 826, 527, 586, 89, 
66, -45, -129, -247, -452, 267, 152, 206, 207, -46, 27, 302, 114, 121, 64, -20, 
-467, -124, -131, 85, 198, 149, 294, 105, 70, 38, 148, 132, -54, 345, 214, 320, 
-75, 37, 319, -226, -110, 97, -152, -189, -69, -77, -105, -186, -207, -251, -375, 266, 
-148, 248, -31, -60, -32, -413, -443, -346, -483, -433, -403, 224, -205, -231, 58, -975, 
-330, 118, -82, 156, 87, 108, 52, 176, 19, 199, 489, 238, 456, -172, 256, 103, 
-182, 263, 90, -219, 214, 67, 227, -131, 24, 22, -370, -317, 248, 171, -77, -194, 
-138, 45, -63, -292, 14, -153, -201, 15, 11, 126, 445, 133, -455, 22, 338, 459, 
450, 282, 128, 107, 17, -263, -34, 269, 211, 252, 322, 342, 693, 3, -160, -50, 
-13, 251, 282, -256, -143, 103, 413, 528, 749, 681, 907, 1168, 656, 353, 756, 172, 
-64, -16, 375, -151, 129, 421, 160, 86, 407, 74, 128, 190, 47, 159, -22, 73, 
-386, 206, 411, 124, -61, -36, -207, 398, 146, 251, -13, -118, -402, 15, 105, -622, 
66, -3, -52, -3, -30, -140, 56, 353, -18, 282, 132, 210, 4, 81, -52, -111, 
105, -319, -496, -382, -172, -668, -693, -460, -540, 497, -111, -278, 124, 27, -43, -158, 
116, -502, -637, -386, 0, 0, 0, 0, 0, 0, 0, 0, 0, -349, 409, 628, 
-260, 387, 834, 682, 393, 1735, -47, -299, -187, 177, 407, 153, -653, -319, -465, 902, 
895, 204, 409, 91, 464, -340, 325, 428, 160, -158, 153, 237, -149, -364, -242, -601, 
-708, -220, -160, -391, 269, 250, 64, 44, -53, -13, -150, 63, -290, 219, 2, -56, 
602, 159, 254, 525, -12, 223, 70, -252, 163, -128, 441, 173, 831, 80, -163, 186, 
391, 75, 854, 194, 471, -227, -658, -566, 215, -46, -147, 516, 735, 440, 405, -100, 
411, 241, -328, -229, -209, -206, 346, 315, 567, 554, 391, 320, -7, -314, -165, 405, 
-340, -432, -1450, -254, 116, -1295, 775, 924, -268, -720, 77, -355, 304, -268, -29, -365, 
457, -282, 155, 82, -2, 22, 111, 62, -804, -548, -633, -29, -73, 65, 78, 271, 
226, 424, -128, -320, -433, -909, -275, -224, -881, 72, -872, -451, -192, 449, -199, -115, 
183, -211, 122, -114, -379, 367, 268, -22, 327, -37, 488, 593, 340, 173, -26, -159, 
-308, 25, 853, 380, -112, 510, 844, -101, -293, -93, 925, -232, 358, 894, 641, 1313, 
1250, -406, -571, -436, -174, 314, -398, 271, 99, 16, -75, 426, 92, 363, 215, -365, 
749, 182, -303, 677, -192, 303, 75, -640, 13, -1439, -1461, -1073, 449, 50, 288, 823, 
758, -514, -108, -146, 202, -209, -206, 68, -222, 3, -29, -104, 48, 146, 232, 692, 
760, -359, -417, -145, -218, -154, -382, -523, -85, -446, 172, 96, -782, 320, 1066, 595, 
-396, 340, -201, -9, -259, -331, 283, -473, -605, -205, -120, 106, -286, 212, 12, -173, 
64, 222, -549, -453, 240, -51, -124, 150, 294, 157, -299, -9, 162, -133, 211, -168, 
-429, -153, -129, -73, 0, 0, 0, 0, 0, 0, 0, 0, 0, 473, 498, 1563, 
-480, -1019, 511, -238, -57, 1135, 81, 493, -23, -143, 376, -15, 236, -226, 765, 360, 
-153, 127, 46, 844, 661, -303, 541, 587, -662, -42, -570, 187, 1077, 177, -58, -126, 
-335, -129, -154, -465, -151, -98, -454, 184, -215, -665, -281, -113, 44, 67, -17, 309, 
-284, 397, 35, 553, 400, 756, 360, -11, -178, -164, 61, 274, 357, -404, -49, 399, 
3, 134, 41, 214, 77, -220, 47, -70, -544, -85, -140, -621, -475, -470, 339, -156, 
-325, 290, -408, -210, 619, 373, 266, -171, -255, -127, 614, 60, 803, -182, 40, -261, 
611, 560, 195, 24, 79, -14, -415, -237, -694, 333, -15, 161, 384, 99, -254, -235, 
446, -196, -254, -75, -174, 559, 1093, 751, 651, 699, 572, -964, -654, -1317, -463, 386, 
-666, -335, 186, -178, -585, -684, 37, -309, 606, -358, 609, 626, 419, 1385, -653, 419, 
1332, -1146, 475, 1495, -666, 394, -70, 151, -409, -708, -249, 123, -724, -731, -252, -116, 
-102, -748, -276, 300, -586, -541, -88, -714, -67, 971, -6, -221, 472, 168, -540, 17, 
826, -242, 158, 112, -89, 331, 121, 20, 448, -21, -79, 234, 400, -301, -414, 737, 
-433, -566, 603, 955, -199, 654, 773, -449, 618, 1661, 578, 1324, 313, -565, 393, 112, 
359, -377, 585, 119, 105, -233, -44, 207, -94, 239, -100, 43, -139, 172, 995, 883, 
1398, 224, 106, 757, 179, 277, 778, 762, 383, 571, 826, 278, 23, 496, -385, 45, 
532, 649, 174, 276, 54, -228, -199, -160, -526, 50, 29, 113, 177, 175, -83, 217, 
123, 286, 454, 77, 168, 628, 25, 25, -290, -596, -702, -539, 76, 209, -609, 164, 
217, 99, 253, 731, 0, 0, 0, 0, 0, 0, 0, 0, 0, -130, -125, 39, 
-260, -216, -200, -705, -981, -1031, 586, 348, 213, -55, -396, -212, 186, 98, 383, -565, 
-333, -142, -336, 4, -172, -450, 91, 665, -323, -120, -428, -89, -320, -378, 233, 119, 
635, 314, 88, -17, 151, 38, -8, 494, 407, 7, 615, 273, 29, 399, 148, -153, 
467, -226, -203, -366, 493, 116, -184, 40, -340, -430, -29, -94, -49, 191, 61, -177, 
132, 25, 41, 247, -154, 611, 272, -273, 693, -12, -725, 183, -298, -621, -592, 375, 
-21, -313, 526, -7, -203, 88, -193, -315, -74, -283, -845, -9, -267, -21, 159, 479, 
461, 178, -635, 685, 322, -617, 493, -355, -978, 475, 695, 220, 111, -11, -252, -61, 
-100, -49, -24, -129, -132, -132, -352, -307, -115, 15, 613, 210, 4, -98, 204, -305, 
-188, 741, 143, -91, 410, 328, 182, 385, 126, 42, 4, 83, -159, -901, -225, -12, 
-720, -158, -45, -809, -230, -88, 25, -51, 76, -227, -747, -131, 66, 8, 156, 668, 
545, 313, 424, 522, 167, -139, 345, 53, 768, 844, 459, 425, -350, -192, -1016, -467, 
-704, 690, 661, 476, 115, -60, -450, 81, -370, -744, 428, 63, 611, 49, 66, 561, 
181, 82, 784, -417, 762, 532, -103, 482, 556, -20, 651, 1621, 220, -368, -190, -28, 
684, -413, -23, 447, 285, 271, 48, 140, 85, 83, 165, -46, -67, 31, -613, -147, 
64, -28, -322, 1012, 135, -58, 1157, 495, 274, 137, 477, 470, -793, -382, -177, -767, 
175, -73, 108, -338, 201, 114, -240, 56, 281, 60, 255, -121, 22, 0, -62, 58, 
179, -95, -310, 359, 184, -333, 261, 536, -349, 362, 678, 340, 25, 153, 99, 343, 
56, 132, -62, 40, 0, 0, 0, 0, 0, 0, 0, 0, 0, -381, -635, -1168, 
512, 500, -23, 208, 250, -360, -308, -83, 142, -329, -358, -118, -172, 126, -259, -200, 
-279, -723, -147, -264, -385, 146, -435, -784, 13, 478, 89, -5, -190, 405, -24, -337, 
367, -27, 72, 628, -14, 71, 318, -58, -17, 523, -261, -233, -154, -396, -248, 19, 
-497, -199, -338, 185, 196, 799, 598, -329, -400, 249, 431, 234, 52, -156, 43, 228, 
400, 24, 330, 74, 291, -355, -71, 326, -500, -145, 417, -166, -76, 221, 100, 143, 
250, -78, -272, 107, 49, 22, 215, 466, -515, 188, 684, 211, -245, 214, 457, -136, 
-239, -66, 781, -450, -326, 586, -698, -327, 691, -540, 74, 402, 110, 75, 37, 189, 
332, 257, -268, -29, -101, -323, -71, -1, -85, -184, -514, -322, 380, 660, -337, -285, 
793, -445, 127, 851, -113, 306, 331, -11, -108, 355, 335, 36, 250, 420, 320, 190, 
323, 454, 93, 328, 486, 8, 67, 0, 339, 19, 56, 135, 27, 276, 478, -9, 
199, 681, -373, -575, 267, 299, -150, 485, -501, -587, -885, 236, -626, -206, 424, 143, 
-114, -408, -137, -463, 78, 344, 149, 238, 277, 38, -89, 26, -149, 17, 85, -365, 
229, 100, -717, 139, -205, -351, 317, -39, -237, 626, 176, -430, 766, 254, -56, 360, 
-955, -455, 349, 54, -113, 66, 171, 235, 339, 191, -145, 210, 276, 77, 708, 112, 
-630, 160, 49, -362, -69, -362, -542, 313, -295, 515, -263, -1, 461, 242, 202, 465, 
40, 599, -61, -43, 345, 445, 228, -436, 167, -44, 130, 137, 37, -69, 85, 89, 
108, 189, -887, 6, -833, -70, 254, 218, -136, -617, 185, -269, -269, -13, -417, 383, 
68, -222, -480, 67, 0, 0, 0, 0, 0, 0, 0, 0, 0, 456, 20, 95, 
387, 341, 98, 574, 282, 111, 84, 475, 206, 109, 49, -4, -41, 363, -124, 121, 
585, -19, 164, -153, -104, 588, -412, -109, -762, 441, 345, -331, -367, 98, -557, 399, 
-97, 218, 46, 245, -147, 42, 81, 72, 128, 273, -79, -404, 21, -133, 147, -533, 
3, 173, -296, 170, 407, 22, -3, -352, -332, 86, -255, -348, -137, -665, -131, -430, 
-6, 403, 504, 623, 52, 148, -6, 62, 122, -243, -187, 222, -109, -70, -177, -118, 
-523, -788, 381, 447, -419, -418, 243, 544, 419, 357, -208, 322, 190, -117, 323, 49, 
-312, -358, -448, 13, -75, -434, -589, -580, -888, -538, 359, -209, 336, -157, -196, 273, 
-712, -455, -39, -67, -20, -145, -202, -205, -138, -109, -86, 210, 186, 254, 127, 389, 
343, 157, 253, 419, 27, 185, -402, 542, -217, -147, 70, -607, 208, -768, -230, -93, 
-630, -134, -121, -745, -89, -88, -130, -578, -322, -83, -343, -50, 319, 290, 267, 159, 
525, -297, 118, 60, -231, 372, 14, 154, 370, 206, -255, 565, -140, 175, 520, 266, 
37, -757, -227, 206, 12, -277, 365, -404, 137, -587, 584, 187, -242, 562, -260, -172, 
504, 153, 384, -135, 61, -477, -188, -210, -544, -542, -305, -419, -195, -811, -485, 370, 
550, 621, -80, 883, -399, -39, -273, -375, -35, -355, -162, 43, -363, -419, -754, -492, 
-757, -304, -125, 1, -173, -253, -60, 142, -189, 158, -32, 458, 123, -336, -375, 12, 
-795, -433, -892, -72, 324, -83, -107, 207, -218, -442, -161, -253, -479, -284, -317, -529, 
-306, -281, -838, -532, -974, -10, 354, -147, 31, 277, -227, -165, -158, -260, -218, -140, 
-270, -423, -385, -516, 0, 0, 0, 0, 0, 0, 0, 0, 0, -265, -56, -309, 
307, 550, 301, 316, 548, 315, -181, -69, -276, -132, -1, -202, -416, -289, -511, -20, 
-9, -52, -282, -158, -258, -543, -471, -466, -70, 46, -72, -299, -178, -256, -513, -384, 
-486, 19, 9, 13, -74, -95, -229, -41, -65, -98, -311, -225, -494, 226, 337, -36, 
152, 280, -96, -831, -497, -762, -520, -215, -434, -710, -393, -562, -770, -403, -687, -29, 
275, 0, -57, 309, 86, 1, 0, 0, 6, 6, 0, 1, 3, 3, -343, -42, 
-177, -481, -62, -108, -531, -191, -172, -17, 28, 15, -113, 3, 25, -227, -141, -173, 
-528, -197, -517, 667, 1034, 695, 732, 1110, 793, -1155, -734, -1193, -102, 361, -84, -56, 
337, -187, -112, -107, -95, 14, 23, 11, 119, 126, 116, -197, -9, -249, -1, 147, 
-81, -28, 117, -92, -111, -3, -175, -225, 16, -147, -548, -263, -434, 116, -44, 8, 
149, -12, -59, 145, 12, -81, -766, -551, -838, -87, 120, -189, -27, 148, -148, -1196, 
-666, -1188, 230, 725, 293, 86, 607, 111, -745, -486, -911, 275, 541, 84, 188, 399, 
-124, -1067, -590, -1096, -148, 256, -211, -245, 138, -359, -114, -208, -501, 13, -165, -547, 
-154, -393, -859, -119, -134, -141, -457, -465, -466, -676, -686, -690, -151, 13, -137, 58, 
167, 37, -203, -184, -413, -141, -110, -209, -9, 75, -26, -1, 27, -67, 232, 371, 
353, 71, 213, 247, -120, -4, 76, -1016, -471, -932, 271, 959, 457, 240, 880, 492, 
539, 218, 278, 317, 335, 236, 491, 225, -71, -1699, -368, -50, -1255, -219, 200, -893, 
97, 381, -97, -251, 24, -327, -170, 62, -476, -375, -246, 90, 4, -186, -83, 8, 
-293, -316, -217, -237, 0, 0, 0, 0, 0, 0, 0, 0, 0, -182, -223, -458, 
-230, -196, -361, -264, 79, -255, 302, 250, 442, -3, 105, 242, 242, 173, 533, -548, 
-228, -70, -295, -318, -119, -219, -145, 174, -184, -197, -227, -254, -108, -217, -339, -139, 
-107, -276, 88, -30, 25, 352, 255, 34, 410, 267, 557, 265, 301, 325, 239, 263, 
377, 171, 261, -547, -38, 241, 97, 50, 302, 191, 273, 365, -626, 10, -323, 4, 
52, -290, -252, -237, -517, -38, -36, -82, -43, -58, -91, -62, -63, -104, 209, 309, 
229, -8, 159, -169, -97, 168, -256, -601, -379, -336, -370, -211, -147, -504, -201, -222, 
911, 805, 612, 381, 91, 45, 177, 12, 150, 337, -43, -291, 3, -62, -199, -34, 
47, 112, 70, 15, -71, -48, -117, -2, 86, 141, 207, 171, 92, 48, 151, 33, 
-71, -23, -35, 106, 252, 237, -14, -163, 131, -106, 9, 94, 20, -297, -252, 0, 
-182, -232, -47, -261, -179, -58, -570, -268, -406, -3, -147, -217, -209, -287, -225, 791, 
666, 250, 227, 273, 8, 194, 101, 170, -453, -680, -669, -514, -463, -366, -118, -155, 
-15, -419, -456, -636, -36, -146, -364, -147, -88, -98, 306, -125, 204, 318, -98, 361, 
201, -1, 707, 12, 45, 136, 253, 265, 291, 278, 394, 504, -714, -358, -144, -1, 
-129, 202, -128, 254, -50, 71, 32, -97, 52, 34, -65, 3, -47, -147, -324, -398, 
-90, 79, 331, 202, 42, -67, 183, 394, 558, 170, 387, 387, 32, 649, 614, 229, 
-137, -156, 54, -27, 398, -110, 214, 641, 229, -232, -270, -65, -290, 69, -205, 93, 
-387, -433, -224, 432, -61, -606, 288, 319, -659, -368, 59, 210, 196, -721, 849, 249, 
265, 210, 12, -602, 0, 0, 0, 0, 0, 0, 0, 0, 0, -1998, -1255, -455, 
-221, -72, 1006, 148, 343, 1737, -531, 208, 128, -290, 56, -173, -40, 346, 543, 1080, 
449, -292, 614, -402, 474, 410, 416, 14, 1067, 386, 275, -101, -373, 2, 422, -163, 
-212, -166, -330, -43, -220, 122, -426, -590, -1006, -989, -143, 260, 126, -488, -594, 123, 
-84, 255, 999, 20, -526, -16, -538, 311, 283, 53, 45, 349, -290, -942, -375, -11, 
-430, -248, -237, -117, -200, -819, -610, -213, -929, -98, 382, -921, -574, -166, 387, -91, 
411, 259, -837, 18, 136, -40, 167, -149, -261, -204, -101, -802, -868, 70, -280, 830, 
-1006, -85, -184, -141, 1020, 857, -1317, 397, -11, -464, -183, -151, 129, -179, 27, 218, 
-310, 287, -752, -465, -415, -41, 440, 87, 803, 530, 629, -397, 76, 138, -455, -267, 
-156, -462, -734, -440, -512, -8, 352, -338, -694, 394, 222, -376, 371, 2171, 35, -39, 
2191, -101, 243, 2320, -146, 162, 16, 89, 225, -628, 329, 124, -744, 277, 339, 277, 
499, 512, 55, 918, 207, -80, 431, 780, -1001, 1, -263, -783, 300, 739, -603, 816, 
112, -743, 68, 153, -413, -89, 94, -145, 402, 237, -977, 37, -311, -479, -59, 628, 
62, 592, 985, 2948, 35, 1212, 612, -2992, -579, 2946, 143, 1354, 427, -206, -392, -364, 
731, 46, 794, -566, -91, -404, -139, -220, -497, 242, -35, -488, 348, -161, 1546, 1965, 
2606, 349, 281, 1064, -430, 317, 1133, -892, -498, -552, -277, 415, 85, -1243, 369, 542, 
-52, 298, 441, 186, 199, 139, 493, -44, 457, -11, 7, -56, 53, 21, 49, 0, 
173, -140, 286, 164, 159, -359, 261, 415, 870, 559, 863, 326, -191, -160, 563, 426, 
-100, 56, 33, 36, 0, 0, 0, 0, 0, 0, 0, 0, 0, 325, 133, -26, 
39, 107, -47, -593, -290, -696, -66, -59, 346, -341, -425, 47, 373, 363, 229, -313, 
-35, -428, -98, 376, -677, -125, -63, -574, -139, -543, 245, 124, 293, 183, 631, 728, 
91, -159, -28, -137, 183, -28, 18, 169, -113, 78, 95, 221, 54, 0, 195, 492, 
-414, 156, -90, 875, 862, -252, 593, -538, -313, -5, -535, -134, 449, 301, -134, 569, 
-104, 257, -40, 351, 480, -201, 14, -1, -240, 199, 233, -147, 52, 27, 155, -580, 
402, 265, 439, -51, 190, -314, 481, -325, 59, 284, 180, 46, -481, -760, -756, 286, 
369, 608, 566, 127, 280, 335, 189, 497, 645, 42, -271, 89, 403, -247, -39, -161, 
447, 661, 145, 195, 89, 177, 207, 262, 581, 472, 165, -454, -401, -323, -150, 54, 
-43, -243, -63, 72, -475, 278, 34, -222, -20, 652, 514, 5, 444, 667, 179, -33, 
629, 125, -27, 715, 136, -32, 570, 250, 216, 138, 97, -66, -114, 229, 189, -98, 
255, 777, -456, -557, -459, -285, -25, 605, -344, 631, -210, -134, 349, 49, -14, -421, 
198, 412, 428, 638, 485, 627, 7, 276, 314, -73, -344, 127, 284, -379, -523, 7, 
-61, -176, -166, 471, 138, 616, 749, 636, 556, 808, 477, 263, -343, -251, -562, -802, 
-1323, 39, 624, 135, 219, -85, 182, 300, 290, 364, 344, 151, 104, 204, 619, 147, 
418, 276, 393, 17, 405, 345, 93, -48, 649, 138, -249, 476, 401, 659, 185, 176, 
-200, -233, -535, 67, 62, -142, -284, -209, -149, -1082, -895, -589, -535, -541, -374, -796, 
-663, -540, -445, -415, -441, -48, 201, 219, -357, -180, -145, -657, -504, -928, -576, -252, 
-592, -899, -583, -993, 0, 0, 0, 0, 0, 0, 0, 0, 0, 597, 271, 507, 
584, 412, 603, 565, 222, 529, -418, -28, 193, -504, -47, 310, -817, -195, 81, -195, 
-61, -77, -169, 158, -4, -386, -14, -360, -339, -453, -407, -253, -280, -243, -600, -406, 
-399, -195, -221, -303, -228, -231, -338, -519, -565, -739, -178, -62, 51, -49, 64, 40, 
-162, -78, -74, -325, -172, -7, 154, 20, 154, 119, 166, 249, -453, -4, 142, 50, 
31, -17, -233, -133, -21, -2, 3, 2, 7, 7, 6, 0, 4, 5, -487, -187, 
-375, -326, 236, 93, -415, 246, 194, 26, 19, 35, 53, 155, 225, -210, 0, 54, 
-437, -492, -253, -108, -86, 85, -312, -503, -306, -391, -422, -545, 16, 205, 351, -192, 
16, -172, -99, -167, -51, 108, 92, 39, -147, -175, -160, -153, -274, -481, 67, -40, 
-357, 17, -102, -480, 621, 434, 195, 327, 339, 194, -235, 138, 101, 104, -190, -81, 
161, -167, -84, 134, -73, -49, -530, -284, -655, 284, 169, -156, 408, 217, -209, -446, 
-384, -556, -32, 90, 44, -379, -16, -255, 469, 37, -54, 608, 389, 522, 470, 213, 
282, -386, -193, 30, 196, 238, 482, 108, 199, 415, 361, -232, -534, 411, -125, -251, 
406, -199, -620, 27, -54, -16, -132, -193, -117, -148, -189, -114, -1008, -1150, -1312, -145, 
-198, -332, -375, -481, -636, 347, 41, -333, 334, 123, -47, 267, 32, -108, -540, -377, 
-79, -555, -372, -53, -670, -503, -106, -241, -331, -282, 313, 348, 264, 67, 105, 158, 
-75, 271, 170, 230, 125, -414, -39, -100, -155, -144, -143, -51, -234, 267, -146, -538, 
-158, -50, -177, 59, 211, 210, -154, 147, -8, 572, 180, -88, 291, -7, -95, 739, 
271, -416, -265, -233, 0, 0, 0, 0, 0, 0, 0, 0, 0, 1211, 256, -1099, 
1656, 180, -697, 1612, -108, -897, -231, -379, -243, -22, -244, -9, -129, 31, -1, 287, 
-324, 207, -235, 78, 224, 465, -232, -190, -403, -99, 338, -131, 534, 693, -12, -308, 
253, -372, -377, -236, -300, 9, 57, -223, -239, 44, 344, 151, -198, 194, 340, 19, 
321, 94, 245, 8, 565, 139, 302, -433, -269, 295, -216, -328, 622, -6, -330, 175, 
230, 224, -183, 407, -163, -195, -894, -1306, 821, 286, -873, 468, 564, -262, -273, 397, 
-307, 386, 211, -255, -404, 336, 41, 319, -272, -298, -781, -586, 586, -516, -57, -518, 
-301, -440, -818, 383, 656, 206, 1424, 1304, 1014, -152, 327, -51, 269, 30, -445, 188, 
54, -122, -180, -214, -397, 473, 488, 159, -475, 34, 390, -705, -803, -861, -45, 194, 
-131, 108, -90, 364, -173, 50, -129, 213, 247, -417, -344, 141, 17, 37, 28, -278, 
-51, 58, -7, -94, -7, 43, 224, 266, 1228, -30, -101, 159, 45, 266, 79, -113, 
-10, 52, -238, 709, 77, -52, 451, 85, 1026, -255, -503, 1019, 412, -637, 398, 154, 
-789, 569, -335, -535, 181, 254, -458, 345, 850, -114, 359, -86, 1042, 330, -227, 584, 
382, -227, 619, 1021, 1158, 2142, 141, 304, 1108, -11, 368, 1104, 358, -85, 776, -235, 
346, 8, 146, -151, 214, 143, 294, 361, 284, 299, -100, 460, 377, 187, 1246, 1320, 
3863, -261, -2504, 1377, -38, -213, 1424, 133, -416, -1904, 269, 562, -591, 1336, 532, -144, 
-384, -556, 116, -518, -140, 763, -473, 263, -261, 302, -79, 422, -216, -161, -203, 76, 
20, 491, -641, -63, 247, -284, -569, -14, -107, -21, 57, -225, 24, -634, 390, 44, 
-354, -82, -541, -518, 0, 0, 0, 0, 0, 0, 0, 0, 0, -115, -261, 65, 
-7, 35, 237, 458, 317, 639, 625, 643, 172, 278, 343, 168, -568, 243, -123, -282, 
641, -31, -439, 73, 214, -513, 661, -468, -171, -261, -370, -224, -675, -542, -458, -502, 
9, 211, 72, 301, 96, 38, 160, 358, 467, 447, 237, 356, -580, 73, 71, -52, 
-444, -72, -209, 685, 537, -447, -539, -13, -398, 477, 229, 51, -279, 469, -226, -393, 
266, 383, 377, 382, -426, 114, -110, 234, -113, -517, -70, 248, -57, 177, -570, -321, 
-330, -290, 545, 713, 269, -167, 486, 79, -239, 410, -11, 300, 127, 519, 528, -205, 
-461, -393, -403, -191, -165, -362, 91, -410, -182, -526, 271, -321, -497, 356, 118, -305, 
849, -425, -195, -216, -17, -476, -343, -314, -981, -754, -793, 299, 218, 487, 425, 695, 
-3, 20, 15, -27, 943, 913, 418, 204, 168, 644, -236, -293, -649, -714, -257, 203, 
-587, -197, 171, -723, -89, 173, -806, -282, -574, 13, 322, 615, 377, 341, 75, 216, 
-431, -428, 308, -364, 786, -52, -105, -512, 177, -73, 152, -211, 260, 87, 474, -216, 
376, -381, 163, 537, 344, 911, 487, 247, 689, -382, -6, -399, -564, -32, -17, 185, 
611, -281, -731, -602, -611, -1287, -628, -546, -960, -1253, -806, -1171, -453, -672, 45, 828, 
94, 418, -381, -648, 688, 99, -46, -461, -54, -534, 233, 305, -233, -215, -923, -992, 
-1700, -451, -290, -1172, -480, -391, -980, 565, 255, 29, 584, -237, 543, 86, 344, 537};


const int conv2_b[32] = {
1725160, 0, 7734187, -6811872, 17716258, 15844110, -3582750, -997054, 
15178346, -522377, 35882944, -298960, -1624500, 17525390, -3099471, 2807277, 
4053060, 8838731, 28344676, -13972076, 10993130, 8433184, 3866778, -186505, 
9778236, 25033140, 3283357, 10918161, -10667687, 13402394, 6081778, 19003274};


const short conv3_w[864] = {
155, -412, 161, 109, 90, -343, 289, 167, -132, -126, -65, -164, -124, -20, -154, -72, 
-73, -202, -561, -292, -163, -618, -567, -858, -1266, -914, -1014, -168, 79, -761, 402, 960, 
-421, 586, 776, -384, -28, -572, -771, -188, -543, -1, -335, -778, -57, -1163, -1591, -569, 
88, -1027, 374, -143, -681, 369, -443, 213, -172, 269, -581, -172, 403, 144, 958, 306, 
430, 510, 115, -73, 829, 24, 143, 520, 353, 114, 102, 0, -6, 180, 247, 54, 
121, -62, 84, 11, 1, 248, 85, -25, 117, -96, -145, 163, -228, -811, -1246, -358, 
293, 205, 544, -6, -164, -56, -467, -584, 360, -547, -167, -11, -636, -454, -834, 489, 
189, -713, -157, 85, -89, -841, -1754, -1329, -1098, -2027, -1330, -835, -1643, -1053, 199, -467, 
283, 612, -16, -313, 72, -247, -675, 174, 393, 410, 374, 207, 309, 429, 436, 561, 
-597, -639, -637, -784, -776, -903, -454, -425, -675, 502, 163, 149, -157, -1111, -510, -816, 
-1121, 213, 64, -8, -87, 293, -349, 219, 216, -233, 110, 137, 54, 240, 187, 405, 
340, 77, 201, 60, 834, -270, -13, 710, -55, -541, -767, -1179, -1073, 32, -583, -514, 
865, 329, -371, 980, -523, 171, -173, -808, 223, -688, -363, -226, -227, 1268, 1104, 454, 
362, 786, -23, 204, 303, 97, 265, -253, -280, -528, -99, -805, -734, -371, -450, -330, 
-61, -428, -612, -166, -693, -941, -616, -92, 239, -738, -39, 383, 329, 143, 224, 679, 
206, -160, 402, 1907, -190, 772, 909, -2071, -933, 1048, -325, 380, 177, 637, -82, 198, 
409, 383, 569, 96, -28, -992, -479, -991, -1073, -895, -1038, -967, -582, -330, -412, 129, 
1780, -488, -195, 1417, -754, -48, 1154, -100, -253, -638, -513, -435, -546, -258, -478, -259, 
284, -429, -99, 419, -1, 123, 145, 840, 94, -236, -261, -166, -166, -67, -198, -157, 
-258, -225, -242, -283, 10, -463, -443, -355, -425, -818, -807, 546, 147, -914, 628, -87, 
-931, 197, 121, -56, -468, -80, -587, 79, 21, 357, 154, -899, -369, -387, -373, 116, 
220, -1142, -61, 838, 364, 1218, -1124, -286, 433, 381, 346, 682, -746, 514, 154, 191, 
36, 54, 68, -4, 391, -223, -24, -5, 142, 171, 56, -25, -38, 251, 33, 131, 
86, -151, -108, -102, 41, 33, -17, -164, -144, -124, -320, -201, -138, -568, -1428, -364, 
734, -86, 229, -244, -288, 146, -69, -247, -482, -183, 129, -295, 580, -477, -230, 709, 
536, -558, 592, 507, -496, -1160, -2003, -1404, -1496, -2284, -1566, -1338, -1844, -1098, -389, -388, 
-77, -44, 58, 270, -480, 212, -632, 535, 693, 582, 683, 529, 607, 572, 636, 550, 
-820, -1017, -966, -1162, -1420, -1329, -959, -940, -1088, 637, -230, 518, -380, 39, -47, -233, 
-317, -888, -276, -502, 3, -302, 39, -44, -327, -392, 264, -65, 32, -33, 137, 367, 
332, -41, -11, 95, 822, 792, 842, -46, -728, 748, -1041, -636, -135, 105, -651, -352, 
-17, -696, 307, 896, 354, 548, -749, -469, 299, -698, 377, 686, -297, 150, 932, 22, 
-509, -381, 16, 194, -522, 322, -520, -353, -210, -325, -126, -850, -288, -200, -44, 75, 
152, -659, -763, -260, -970, -1435, -1142, -66, -935, 85, -663, -520, -539, -677, -40, 378, 
-136, -558, 367, 1939, 151, 287, 613, -1722, 154, 1313, 169, 166, -122, -107, 22, 309, 
557, -1, 414, -286, -52, -504, 212, -523, -688, -92, -374, -284, 488, -360, 430, 470, 
1463, -98, -320, 417, -721, -184, 236, -403, -294, -530, -373, -1059, -477, -551, -467, -402, 
-608, -696, -434, -79, -322, -705, -99, 93, -32, -111, -40, -99, 22, 186, -54, -42, 
45, -23, -47, -62, 166, -813, -294, -235, -651, -665, -437, -304, 873, -356, -29, 235, 
468, -416, -126, -715, 197, -376, -424, -991, -1324, -479, 326, -996, -583, -478, -589, 312, 
421, -737, 611, 985, 266, 1158, -444, 426, 19, -779, 260, -109, -853, 461, 710, 286, 
-79, 193, 0, 370, 186, 57, 307, 84, -1102, -485, -1050, -654, -214, -457, -968, -691, 
-882, -169, 7, -77, -94, -9, 31, -169, -121, -120, 159, -1109, 360, -893, -2239, -323, 
218, -238, 825, 301, -44, 749, 1083, 375, 597, 486, 667, 131, 59, -586, -136, 571, 
-835, 46, -212, -273, -285, -1014, -1583, -1318, -1237, -1700, -1309, -957, -1386, -1019, -639, -47, 
-613, 467, 326, 147, 683, 843, 111, 381, 331, 143, 411, 389, 414, 483, 535, 346, 
-315, -484, -398, -579, -680, -541, -273, -299, -292, 134, 151, 424, 73, -277, -929, -394, 
-135, -418, -1263, -774, -753, -823, 15, -505, -1072, -608, -503, -786, -692, -643, -694, -809, 
-813, -634, -822, -504, 746, -330, 832, -176, 145, 165, -279, -264, -351, 1141, 492, 1137, 
490, -1090, 1003, 967, -175, 1291, -555, -542, 440, -673, -170, 451, -764, 264, 678, 331, 
49, -898, 482, -321, -1039, 767, -749, -567, -51, -177, -152, -117, 95, -207, -80, -34, 
91, -222, -576, -297, -854, -1621, -679, -135, -685, 293, -364, -369, -234, -298, 401, 645, 
280, 27, 830, 1147, -474, 151, -60, -1359, -559, 1456, 421, 1065, 368, 491, 95, 480, 
482, 188, 222, -41, -372, 235, 556, 278, 427, 53, 103, 113, 869, 574, 754, 906, 
1623, 70, -811, 125, -299, -233, 161, -128, -401, -519, -395, -822, -253, -151, -413, -97};


const int conv3_b[3] = {
-9272214, -11021261, -16252309};

